{
  "version": "0.17.4",
  "metadata": {
    "version": "0.17.4",
    "samples": 1380,
    "features": 25,
    "source": "logs/endocrine_turns.jsonl"
  },
  "input_features": [
    "bias",
    "hormone:cortisol",
    "hormone:dopamine",
    "hormone:noradrenaline",
    "hormone:oxytocin",
    "hormone:serotonin",
    "intent:analytical",
    "intent:emotional",
    "intent:narrative",
    "intent:reflective",
    "length:brief",
    "length:concise",
    "length:detailed",
    "profile:base",
    "profile:instruct",
    "tag:curious",
    "tag:diary",
    "tag:internal",
    "tag:reflection",
    "tag:steady",
    "tag:warm",
    "trait:curiosity",
    "trait:steadiness",
    "trait:tension",
    "trait:warmth"
  ],
  "output_names": [
    "temperature_delta",
    "top_p_delta",
    "frequency_penalty_delta",
    "presence_penalty_delta",
    "max_tokens_delta",
    "self_bias_scale"
  ],
  "hidden_size": 6,
  "state_decay": 0.6,
  "output_scales": {
    "temperature_delta": 287.02024463937215,
    "top_p_delta": 287.559442972412,
    "frequency_penalty_delta": 285.39307891652516,
    "presence_penalty_delta": 1.0,
    "max_tokens_delta": 665.3742497036205,
    "self_bias_scale": 283.2516095710618
  },
  "output_bounds": {
    "temperature_delta": [
      -0.7091789048585998,
      0.7091789048585998
    ],
    "top_p_delta": [
      -0.6509670628985148,
      0.6509670628985148
    ],
    "frequency_penalty_delta": [
      -2.228185606739748,
      2.228185606739748
    ],
    "presence_penalty_delta": [
      -0.5,
      0.5
    ],
    "max_tokens_delta": [
      -626.4,
      626.4
    ],
    "self_bias_scale": [
      -1.239999764940941,
      1.239999764940941
    ]
  },
  "weights": {
    "input": [
      0.0004918334354206987,
      -0.0007913546215742368,
      -0.0011539087370146558,
      0.0056200854484422785,
      0.0032700538884698933,
      -0.001891164214080809,
      -0.0006697538579119155,
      0.00024095924154474564,
      0.0005258717457256655,
      0.0003947563060620147,
      -6.9170055919188e-05,
      0.00020091077355377938,
      0.00036009271778608074,
      0.0005837457911097161,
      -9.19123556890769e-05,
      0.0006306887390482385,
      -0.00013521216474968254,
      -0.000135212164749564,
      -0.00013521216474956396,
      0.0005164404059995576,
      4.26980817668431e-05,
      -0.0019071034711270528,
      0.003180781927419979,
      0.007196484146483147,
      -0.003757262971338824,
      0.0003518010563565785,
      -0.0016979964100928182,
      -0.0008068118058331993,
      0.00556961565445543,
      0.003497484410465011,
      -0.0017497937247079995,
      -0.0005615756106620558,
      0.0003063111005889179,
      0.0002157264499353216,
      0.00039133911649423905,
      -0.0002857668639920546,
      0.00020014930381067442,
      0.0004374186165379458,
      0.0004756385562653855,
      -0.00012383749990883927,
      -3.261159437013491e-05,
      -9.133799223518889e-05,
      -9.133799223509999e-05,
      -9.13379922350984e-05,
      -9.650866092283071e-05,
      2.3314230940671467e-05,
      -0.0006184274488210935,
      0.002086440765903412,
      0.0041573540777041056,
      -0.0032452633238844466,
      0.00038743120493870586,
      0.002669742527338831,
      0.0032148962252910476,
      -0.01317355603773397,
      -0.005793910890569631,
      0.001312242916346109,
      0.0008010029846434234,
      -0.00010706518542110327,
      -0.00012742436772969143,
      -0.00017908222655367415,
      -0.0011940431972310415,
      0.0008750092364069416,
      0.0007064651657628322,
      -0.0002056616227914401,
      0.0005930928277302375,
      1.1562879294022949e-05,
      0.00032792986731530413,
      0.00032792986731517516,
      0.00032792986731517337,
      0.0003720596347148875,
      -0.00017185511921873783,
      0.0020234697919368537,
      -0.003446826387625967,
      -0.008602551220802402,
      0.006347408384262095,
      0.0,
      0.0,
      0.0,
      0.0,
      0.0,
      0.0,
      0.0,
      0.0,
      0.0,
      0.0,
      0.0,
      0.0,
      0.0,
      0.0,
      0.0,
      0.0,
      0.0,
      0.0,
      0.0,
      0.0,
      0.0,
      0.0,
      0.0,
      0.0,
      0.0,
      -0.3711428265525377,
      -0.46771371238534537,
      -0.0033086618201614393,
      1.4052184405560337,
      0.5390672760364523,
      0.2634130156478218,
      -0.24186448863581966,
      -0.20582114698908893,
      0.3295904015181029,
      -0.25304759244575176,
      -0.28683011008591985,
      -0.12224365516427928,
      0.037930938697657963,
      -0.166736199547591,
      -0.20440662700494694,
      0.034104708101600725,
      -0.013331168115191944,
      -0.013331168115184838,
      -0.013331168115184939,
      -0.4825988560491085,
      0.05372610922406965,
      -0.5423600837627184,
      -0.14978929239680622,
      0.6684175738984438,
      -0.7140846132437172,
      -0.0009091437262773803,
      0.0009217273091843919,
      0.0025350361711004386,
      -0.007526679967597469,
      -0.005136923182325031,
      0.005625822771232062,
      -0.00016752886257840954,
      2.6378464426873638e-05,
      -0.0005995900760047686,
      -0.00016840325212084817,
      -0.0005666256253274905,
      -0.000338994429765603,
      -3.523671184265124e-06,
      -0.0012945166539148013,
      0.0003853729276374054,
      -0.0006638339599785698,
      0.0001516563303075021,
      0.0001516563303074005,
      0.00015165633030739882,
      0.0023333282619890225,
      -0.00011070462122692842,
      0.0026677107596596527,
      -0.002099251452152791,
      -0.0020725039464054504,
      0.000987033718429781
    ],
    "recurrent": [
      0.25,
      0.0,
      0.0,
      0.0,
      0.0,
      0.0,
      0.0,
      0.25,
      0.0,
      0.0,
      0.0,
      0.0,
      0.0,
      0.0,
      0.25,
      0.0,
      0.0,
      0.0,
      0.0,
      0.0,
      0.0,
      0.25,
      0.0,
      0.0,
      0.0,
      0.0,
      0.0,
      0.0,
      0.25,
      0.0,
      0.0,
      0.0,
      0.0,
      0.0,
      0.0,
      0.25
    ],
    "hidden_bias": [
      0.0,
      0.0,
      0.0,
      0.0,
      0.0,
      0.0
    ],
    "output": [
      1.0,
      0.0,
      0.0,
      0.0,
      0.0,
      0.0,
      0.0,
      1.0,
      0.0,
      0.0,
      0.0,
      0.0,
      0.0,
      0.0,
      1.0,
      0.0,
      0.0,
      0.0,
      0.0,
      0.0,
      0.0,
      1.0,
      0.0,
      0.0,
      0.0,
      0.0,
      0.0,
      0.0,
      1.0,
      0.0,
      0.0,
      0.0,
      0.0,
      0.0,
      0.0,
      1.0
    ],
    "output_bias": [
      0.0,
      0.0,
      0.0,
      0.0,
      0.0,
      0.0
    ]
  }
}