{
  "feature_names": [
    "bias",
    "h_pre_dopamine",
    "h_pre_serotonin",
    "h_pre_cortisol",
    "h_pre_oxytocin",
    "h_pre_noradrenaline",
    "reinforcement_valence_delta",
    "reinforcement_length_score",
    "reinforcement_engagement_score",
    "reinforcement_authenticity_score",
    "reinforcement_assistant_drift",
    "reinforcement_self_preoccupation",
    "intent::analytical",
    "intent::emotional",
    "intent::narrative",
    "intent::reflective",
    "length::brief",
    "length::concise",
    "length::detailed",
    "profile::base",
    "profile::instruct"
  ],
  "hormone_names": [
    "dopamine",
    "serotonin",
    "cortisol",
    "oxytocin",
    "noradrenaline"
  ],
  "weights": {
    "dopamine": [
      -5.728814918695403,
      -13.153041284182033,
      11.08415539667165,
      40.48552850140306,
      13.683939222898818,
      24.561958380860617,
      -0.40586680805402664,
      -10.155278873263857,
      -0.7593771835480896,
      2.134777235354919,
      -0.05660521592046598,
      -0.31779570076033997,
      -1.9358167937052229,
      -1.931500161833112,
      -0.31195657703539514,
      -1.5495413861220384,
      -2.203985421394611,
      -1.5869615827519656,
      -1.9378679145493625,
      -3.0905018025672715,
      -2.6383131161280096
    ],
    "serotonin": [
      -9.162359384423599,
      -9.0706704673099,
      5.001725244164757,
      33.273661560096265,
      6.765802548080581,
      22.663862957998685,
      1.6308412745625533,
      -4.645087826015782,
      4.921001730319259,
      1.127816306285489,
      0.1059527706409862,
      0.39679012530194835,
      -2.1015837116674465,
      -1.8848355647708503,
      -3.152235295051428,
      -2.023704812934196,
      -2.871759569907309,
      -2.9705274565063484,
      -3.3200723580104285,
      -4.511825751151985,
      -4.650533633271464
    ],
    "cortisol": [
      13.332198448279515,
      -7.1137312554850105,
      9.060718177288418,
      -71.82662786490525,
      -15.357636610985846,
      -17.04953782507336,
      -0.5605569878170665,
      7.037507275218699,
      -2.8765115529007126,
      -1.03094877202219,
      -0.061586090437098666,
      0.20168064641232217,
      3.4922021066774716,
      3.312569917542276,
      2.9309384958681663,
      3.5964879281918276,
      3.9401578826592645,
      4.280197163034973,
      5.111843402585798,
      6.548005696349808,
      6.784192751929305
    ],
    "oxytocin": [
      -3.2013061163834236,
      -3.0181355250564845,
      0.00974761419387599,
      -6.472706899027827,
      0.5993782864916571,
      -0.4862142481642581,
      1.5547033338050258,
      1.5051149970512663,
      7.49168049566257,
      0.8180797555833933,
      -0.5060400983466117,
      -0.24759587825247564,
      -0.6521912974271766,
      -0.6288967981897108,
      -1.2857385168427469,
      -0.6344795039238743,
      -1.1781847614074035,
      -0.9819089535347473,
      -1.0412124014413424,
      -1.5882096837691846,
      -1.6130964326142818
    ],
    "noradrenaline": [
      0.8906672872875591,
      2.9824299102924816,
      -1.8682689247000706,
      17.73757819346053,
      6.117321324246201,
      5.366723493231757,
      0.06939306264298058,
      -6.490337008294961,
      -1.9197213496214984,
      0.2568462545842756,
      1.0970695031275137,
      -0.2430188589651278,
      -0.07765607894686608,
      0.0023758049378690997,
      1.0329283818207824,
      -0.06698082052425972,
      0.6135727874560619,
      0.4724634886956148,
      -0.195368988864202,
      0.5363128502498107,
      0.3543544370378344
    ]
  },
  "normalization": {
    "hormone_scale": 100.0
  },
  "metrics": {
    "train": {
      "rmse": [
        1.4012425680509506,
        0.6249925352413448,
        1.3439522098483698,
        0.42645609389335537,
        0.6504736909755164
      ],
      "mae": [
        1.1008328051022833,
        0.4912664317019464,
        1.0703225053349026,
        0.2762919782282859,
        0.479869038121416
      ],
      "samples": 1104
    },
    "validation": {
      "rmse": [
        1.4742277257659393,
        0.6855682304346619,
        1.3797207516241976,
        0.4923962147225437,
        0.7412106640488009
      ],
      "mae": [
        1.1740377108057996,
        0.5493238860014137,
        1.1122033161973053,
        0.32301545186854386,
        0.5430737949959179
      ],
      "samples": 276
    }
  }
}