{
  "feature_names": [
    "bias",
    "h_pre_dopamine",
    "h_pre_serotonin",
    "h_pre_cortisol",
    "h_pre_oxytocin",
    "h_pre_noradrenaline",
    "reinforcement_valence_delta",
    "reinforcement_length_score",
    "reinforcement_engagement_score",
    "reinforcement_authenticity_score",
    "reinforcement_assistant_drift",
    "reinforcement_self_preoccupation",
    "reinforcement_affect_valence",
    "reinforcement_affect_intimacy",
    "reinforcement_affect_tension",
    "intent::analytical",
    "intent::emotional",
    "intent::narrative",
    "intent::reflective",
    "length::brief",
    "length::concise",
    "length::detailed",
    "profile::base",
    "profile::instruct"
  ],
  "hormone_names": [
    "dopamine",
    "serotonin",
    "cortisol",
    "oxytocin",
    "noradrenaline"
  ],
  "weights": {
    "dopamine": [
      -2.5140355890062804,
      -4.4818482355214195,
      4.110900409748395,
      15.749122118483337,
      -0.4563102443722488,
      7.378422245343201,
      -0.2780362415277408,
      -3.333224369402997,
      2.0372374755130993,
      0.9764534648512416,
      0.1296027567720414,
      -1.564698252382423,
      0.6083859176580096,
      12.126131958665589,
      -10.711370650623712,
      -0.34528940166208466,
      -0.42616625684681597,
      -1.8818144484215633,
      0.13923451792415492,
      -1.9472475008483954,
      -0.3910927978512442,
      -0.1756952903066713,
      -1.1557777598334442,
      -1.3582578291727532
    ],
    "serotonin": [
      -2.9114927536087434,
      -7.960177479102635,
      4.769081478536688,
      16.507109128821835,
      2.4369099068877405,
      7.048922469621581,
      1.4372659015022464,
      -1.4709484405009885,
      -0.242125393983538,
      0.9001605309855227,
      -0.21878030282005562,
      0.9197419868517445,
      -0.25893821269806677,
      -6.2403833650506995,
      9.894640630573047,
      -0.2747384799829688,
      -0.35530811760452247,
      -1.3748244354086878,
      -0.9066217206125322,
      -0.30203366599095693,
      -1.2108017328462386,
      -1.3986573547715722,
      -1.5476895783932838,
      -1.363803175215375
    ],
    "cortisol": [
      7.16428354801887,
      -9.546597459221509,
      1.3955991123922147,
      -32.44897456251278,
      -0.21088889412168896,
      1.3658463229213647,
      -0.36987395579990046,
      1.6819142804729499,
      -2.517662011098881,
      -0.5185604293128561,
      0.03468307507857266,
      0.06023577232953086,
      -0.14028926376450213,
      -3.0442255188028327,
      4.304107221463082,
      1.3801545266816688,
      1.397550974896789,
      2.7052869015848175,
      1.6812911448556989,
      2.207313501841811,
      2.3502528143055095,
      2.606717231871635,
      3.423268204746707,
      3.74101534327207
    ],
    "oxytocin": [
      1.7491666109627282,
      -0.16022347561613115,
      2.2306805302686796,
      -4.462654392925349,
      -2.1883732089903716,
      -6.333690963900103,
      1.5539017959121768,
      0.2483655367839213,
      0.4897001241162139,
      0.8533771444199426,
      -0.1173062367083184,
      -0.5179316912170414,
      -0.53662893182364,
      -4.275710198270138,
      1.5300286093280466,
      0.3284555631091132,
      0.24890366398036887,
      1.1896924796682815,
      -0.017885095795028144,
      0.6780898215219626,
      0.5706207014591587,
      0.5004560879816113,
      0.7668422450067126,
      0.9823243659560047
    ],
    "noradrenaline": [
      -1.7995727778370687,
      2.6624783738417874,
      -0.6915617847026895,
      8.354435111767991,
      0.7203361123190014,
      8.874883421639334,
      -0.20288662677255984,
      -1.2862208254573197,
      -3.136121337569086,
      -0.3339400726232235,
      0.8559036514861987,
      -0.043633846908311485,
      0.2943798270641449,
      4.9588967060791065,
      1.7681532771700246,
      -0.25968905421802047,
      -0.04859238779553578,
      -1.4239248072705493,
      -0.06736652855300414,
      -1.0085954651401117,
      -0.228509555235326,
      -0.562467757461654,
      -0.6416346592742577,
      -1.157938118562775
    ]
  },
  "normalization": {
    "hormone_scale": 100.0
  },
  "metrics": {
    "train": {
      "rmse": [
        1.2384811431578375,
        1.1739593159007788,
        1.0443725606572722,
        0.9123453456073632,
        0.8020708025095945
      ],
      "mae": [
        0.8815084946429511,
        0.7159912828962045,
        0.7556642247609981,
        0.4448626876112107,
        0.5737234435798428
      ],
      "samples": 8029
    },
    "validation": {
      "rmse": [
        1.3152976754531818,
        1.1111719966757385,
        1.0455679886467624,
        0.8526514894283702,
        0.8638144588210998
      ],
      "mae": [
        0.931139417502676,
        0.7114668418310617,
        0.7495205199815377,
        0.44705177407833907,
        0.5953341556760082
      ],
      "samples": 2008
    }
  }
}